       48.680249      -87.240790     -0.51100874       0
       48.660773      -87.248697     -0.49610138       1
       48.642989      -87.255906     -0.49195957       2
       48.630285      -87.261053     -0.50463629       3
       48.611654      -87.268599     -0.50575781       4
       48.581166      -87.280937     -0.51014519       5
       48.593022      -87.276141     -0.51677704       6
       48.563378      -87.288130     -0.49499130       7
       48.543898      -87.296005     -0.47980738       8
       48.531192      -87.301137     -0.49748278       9
       48.514248      -87.307978     -0.48809290      10
       48.482066      -87.320977     -0.50024033      11
       48.493924      -87.316190     -0.50601530      12
       48.465124      -87.327812     -0.48781586      13
       48.443950      -87.336350     -0.49334240      14
       48.432096      -87.341129     -0.51350021      15
       48.416847      -87.347271     -0.50383329      16
       48.382967      -87.360902     -0.50659847      17
       48.394825      -87.356134     -0.53254128      18
       48.367720      -87.367030     -0.52702618      19
       48.344844      -87.376213     -0.50493097      20
       48.332983      -87.380971     -0.50216532      21
       48.318582      -87.386748     -0.51570559      22
       48.295707      -87.395921     -0.50186634      23
       48.283845      -87.400675     -0.49632597      24
       48.270290      -87.406106     -0.52647877      25
       48.245724      -87.415950     -0.51788378      26
       48.233862      -87.420699     -0.52757359      27
       48.221152      -87.425783     -0.52371407      28
       48.196581      -87.435610     -0.54001188      29
       48.184721      -87.440348     -0.53338575      30
       48.172013      -87.445426     -0.50263357      31
       48.148289      -87.454892     -0.52480745      32
       48.122868      -87.465024     -0.51126242      33
       48.134730      -87.460297     -0.52895689      34
       48.099141      -87.474474     -0.53172302      35
       48.084734      -87.480208     -0.54166555      36
       48.072870      -87.484927     -0.51480675      37
       48.050838      -87.493687     -0.50092363      38
       48.023717      -87.504467     -0.50156212      39
       48.035582      -87.499749     -0.53834820      40
       48.001683      -87.513219     -0.52004004      41
       47.986426      -87.519276     -0.52836084      42
       47.973712      -87.524320     -0.54664183      43
       47.952526      -87.532725     -0.51972055      44
       47.924554      -87.543806     -0.52249575      45
       47.936422      -87.539107     -0.51310015      46
       47.904213      -87.551860     -0.56346560      47
       47.887261      -87.558565     -0.51555395      48
       47.874545      -87.563593     -0.54021978      49
       47.855049      -87.571294     -0.53679848      50
       47.825379      -87.583010     -0.54341698      51
       47.837248      -87.578326     -0.52566862      52
       47.806728      -87.590366     -0.54725170      53
       47.788076      -87.597713     -0.53646040      54
       47.776207      -87.602390     -0.52600813      55
       47.757555      -87.609732     -0.54725170      56
       47.726187      -87.622071     -0.57809973      57
       47.738056      -87.617401     -0.57117605      58
       47.708382      -87.629071     -0.57918501      59
       47.688885      -87.636731     -0.53646040      60
       47.677015      -87.641390     -0.53646040      61
       47.660059      -87.648049     -0.57193899      62
       47.626999      -87.661019     -0.57406044      63
       47.639714      -87.656033     -0.57471180      64
       47.610886      -87.667338     -0.56432056      65
       47.589689      -87.675645     -0.56710291      66
       47.577821      -87.680292     -0.59457397      67
       47.561711      -87.686599     -0.60119581      68
       47.527796      -87.699865     -0.54264927      69
       47.540512      -87.694893     -0.54964304      70
       47.513381      -87.705496     -0.56603289      71
       47.284410      -87.794606     -0.57226849      72
       47.280169      -87.796248     -0.56985235      73
       47.267446      -87.801178     -0.58167791      74
       47.243696      -87.810381     -0.64679003      75
       47.218249      -87.820232     -0.61166096      76
       47.230973      -87.815308     -0.64123917      77
       47.195347      -87.829090     -0.59451246      78
       47.180926      -87.834665     -0.61863565      79
       47.168204      -87.839582     -0.60225677      80
       47.146148      -87.848099     -0.60225677      81
       47.118999      -87.858577     -0.61305714      82
       47.130876      -87.853994     -0.60570383      83
       47.096945      -87.867083     -0.59248018      84
       47.081674      -87.872970     -0.59667444      85
       47.068948      -87.877875     -0.60261822      86
       47.047737      -87.886045     -0.60714626      87
       47.019736      -87.896817     -0.63952160      88
       47.031616      -87.892247     -0.60540724      89
       46.998527      -87.904973     -0.60297012      90
       46.981556      -87.911490     -0.60297012      91
       46.974768      -87.914096     -0.60053015      92
